digraph Tree {
node [shape=box, style="filled, rounded", color="black", fontname=helvetica] ;
edge [fontname=helvetica] ;
0 [label="Gold <= 484.2\nmse = 373996.07\nsamples = 106\nvalue = 920.97", fillcolor="#f5ceb1"] ;
1 [label="Gold <= 399.0\nmse = 43792.04\nsamples = 46\nvalue = 342.55", fillcolor="#fcefe5"] ;
0 -> 1 [labeldistance=2.5, labelangle=45, headlabel="True"] ;
2 [label="SSE-SP500 <= -371.06\nmse = 20377.46\nsamples = 39\nvalue = 260.5", fillcolor="#fdf3ed"] ;
1 -> 2 ;
3 [label="Unemployment <= 11.8\nmse = 10806.37\nsamples = 16\nvalue = 167.47", fillcolor="#fef9f5"] ;
2 -> 3 ;
4 [label="Gold <= 357.5\nmse = 12688.3\nsamples = 10\nvalue = 193.07", fillcolor="#fdf7f3"] ;
3 -> 4 ;
5 [label="DAX-SP500 <= -2751.58\nmse = 13210.72\nsamples = 7\nvalue = 259.14", fillcolor="#fdf3ed"] ;
4 -> 5 ;
6 [label="mse = 0.0\nsamples = 1\nvalue = 506.45", fillcolor="#fae5d7"] ;
5 -> 6 ;
7 [label="mse = 3520.12\nsamples = 6\nvalue = 217.93", fillcolor="#fdf6f1"] ;
5 -> 7 ;
8 [label="USA6mBond <= 5.16\nmse = 1045.04\nsamples = 3\nvalue = 116.0", fillcolor="#fefcfa"] ;
4 -> 8 ;
9 [label="mse = 178.61\nsamples = 2\nvalue = 85.08", fillcolor="#fffdfd"] ;
8 -> 9 ;
10 [label="mse = 0.0\nsamples = 1\nvalue = 146.91", fillcolor="#fefaf7"] ;
8 -> 10 ;
11 [label="InterbankRate <= 10.45\nmse = 2231.29\nsamples = 6\nvalue = 112.0", fillcolor="#fefcfa"] ;
3 -> 11 ;
12 [label="SSE-SP500 <= -593.62\nmse = 730.94\nsamples = 3\nvalue = 154.69", fillcolor="#fef9f6"] ;
11 -> 12 ;
13 [label="mse = 2.18\nsamples = 2\nvalue = 173.78", fillcolor="#fef8f5"] ;
12 -> 13 ;
14 [label="mse = 0.0\nsamples = 1\nvalue = 116.49", fillcolor="#fefcfa"] ;
12 -> 14 ;
15 [label="TIME <= 35.0\nmse = 87.05\nsamples = 3\nvalue = 69.31", fillcolor="#fffefe"] ;
11 -> 15 ;
16 [label="mse = 0.0\nsamples = 1\nvalue = 57.54", fillcolor="#ffffff"] ;
15 -> 16 ;
17 [label="mse = 26.68\nsamples = 2\nvalue = 75.19", fillcolor="#fffefd"] ;
15 -> 17 ;
18 [label="key_rate <= 24.5\nmse = 16737.03\nsamples = 23\nvalue = 325.96", fillcolor="#fcf0e7"] ;
2 -> 18 ;
19 [label="key_rate <= 17.0\nmse = 5453.99\nsamples = 12\nvalue = 438.82", fillcolor="#fbe9dd"] ;
18 -> 19 ;
20 [label="Brent <= 28.77\nmse = 228.27\nsamples = 3\nvalue = 545.94", fillcolor="#f9e3d3"] ;
19 -> 20 ;
21 [label="mse = 0.0\nsamples = 1\nvalue = 566.62", fillcolor="#f9e2d1"] ;
20 -> 21 ;
22 [label="mse = 21.76\nsamples = 2\nvalue = 535.6", fillcolor="#f9e4d4"] ;
20 -> 22 ;
23 [label="Brent <= 23.42\nmse = 2545.98\nsamples = 9\nvalue = 406.68", fillcolor="#fbebe0"] ;
19 -> 23 ;
24 [label="mse = 688.67\nsamples = 3\nvalue = 448.56", fillcolor="#fae9dc"] ;
23 -> 24 ;
25 [label="mse = 1835.41\nsamples = 6\nvalue = 378.76", fillcolor="#fbede2"] ;
23 -> 25 ;
26 [label="DAX-SP500 <= -2465.65\nmse = 4407.18\nsamples = 11\nvalue = 221.17", fillcolor="#fdf6f0"] ;
18 -> 26 ;
27 [label="Gold <= 378.9\nmse = 182.38\nsamples = 5\nvalue = 189.01", fillcolor="#fdf7f3"] ;
26 -> 27 ;
28 [label="mse = 127.35\nsamples = 4\nvalue = 182.97", fillcolor="#fef8f4"] ;
27 -> 28 ;
29 [label="mse = 0.0\nsamples = 1\nvalue = 204.13", fillcolor="#fdf7f2"] ;
27 -> 29 ;
30 [label="DAX-SP500 <= -1412.31\nmse = 6563.36\nsamples = 6\nvalue = 253.33", fillcolor="#fdf4ed"] ;
26 -> 30 ;
31 [label="mse = 950.24\nsamples = 3\nvalue = 319.94", fillcolor="#fcf0e7"] ;
30 -> 31 ;
32 [label="mse = 243.59\nsamples = 3\nvalue = 164.52", fillcolor="#fef9f5"] ;
30 -> 32 ;
33 [label="SSE-SP500 <= -444.32\nmse = 8800.49\nsamples = 7\nvalue = 657.1", fillcolor="#f8ddc9"] ;
1 -> 33 ;
34 [label="Brent <= 63.24\nmse = 2657.4\nsamples = 2\nvalue = 830.48", fillcolor="#f6d3ba"] ;
33 -> 34 ;
35 [label="mse = 0.0\nsamples = 1\nvalue = 778.93", fillcolor="#f6d6be"] ;
34 -> 35 ;
36 [label="mse = -0.0\nsamples = 1\nvalue = 882.03", fillcolor="#f5d0b5"] ;
34 -> 36 ;
37 [label="SSE-SP500 <= 147.91\nmse = 2814.42\nsamples = 5\nvalue = 622.42", fillcolor="#f8dfcc"] ;
33 -> 37 ;
38 [label="Unemployment <= 8.1\nmse = 1033.07\nsamples = 4\nvalue = 607.95", fillcolor="#f9e0ce"] ;
37 -> 38 ;
39 [label="SSE-SP500 <= -241.44\nmse = 238.83\nsamples = 2\nvalue = 636.9", fillcolor="#f8decb"] ;
38 -> 39 ;
40 [label="mse = -0.0\nsamples = 1\nvalue = 627.98", fillcolor="#f8decc"] ;
39 -> 40 ;
41 [label="mse = -0.0\nsamples = 1\nvalue = 663.67", fillcolor="#f8dcc9"] ;
39 -> 41 ;
42 [label="TIME <= 95.5\nmse = 461.48\nsamples = 2\nvalue = 584.79", fillcolor="#f9e1d0"] ;
38 -> 42 ;
43 [label="mse = 0.0\nsamples = 1\nvalue = 567.25", fillcolor="#f9e2d1"] ;
42 -> 43 ;
44 [label="mse = 0.0\nsamples = 1\nvalue = 611.1", fillcolor="#f8dfcd"] ;
42 -> 44 ;
45 [label="mse = -0.0\nsamples = 1\nvalue = 752.66", fillcolor="#f7d7c1"] ;
37 -> 45 ;
46 [label="Brent <= 55.73\nmse = 159330.1\nsamples = 60\nvalue = 1380.54", fillcolor="#efb388"] ;
0 -> 46 [labeldistance=2.5, labelangle=-45, headlabel="False"] ;
47 [label="DAX-SP500 <= 3169.35\nmse = 27591.59\nsamples = 13\nvalue = 896.35", fillcolor="#f5cfb4"] ;
46 -> 47 ;
48 [label="DAX-SP500 <= -2485.64\nmse = 12765.69\nsamples = 4\nvalue = 694.54", fillcolor="#f7dbc6"] ;
47 -> 48 ;
49 [label="SSE-SP500 <= 463.2\nmse = 1905.76\nsamples = 2\nvalue = 588.24", fillcolor="#f9e1cf"] ;
48 -> 49 ;
50 [label="mse = 0.0\nsamples = 1\nvalue = 631.89", fillcolor="#f8decb"] ;
49 -> 50 ;
51 [label="mse = 0.0\nsamples = 1\nvalue = 544.58", fillcolor="#f9e3d3"] ;
49 -> 51 ;
52 [label="Brent <= 42.99\nmse = 1026.24\nsamples = 2\nvalue = 800.84", fillcolor="#f6d5bc"] ;
48 -> 52 ;
53 [label="mse = 0.0\nsamples = 1\nvalue = 768.8", fillcolor="#f7d6bf"] ;
52 -> 53 ;
54 [label="mse = -0.0\nsamples = 1\nvalue = 832.87", fillcolor="#f6d3b9"] ;
52 -> 54 ;
55 [label="SSE-SP500 <= -50.27\nmse = 12785.55\nsamples = 9\nvalue = 969.74", fillcolor="#f4cbad"] ;
47 -> 55 ;
56 [label="Gold <= 1256.95\nmse = 3539.56\nsamples = 4\nvalue = 1084.59", fillcolor="#f3c4a3"] ;
55 -> 56 ;
57 [label="Gold <= 1227.95\nmse = 634.79\nsamples = 2\nvalue = 1138.96", fillcolor="#f2c19e"] ;
56 -> 57 ;
58 [label="mse = 0.0\nsamples = 1\nvalue = 1164.15", fillcolor="#f2c09c"] ;
57 -> 58 ;
59 [label="mse = 0.0\nsamples = 1\nvalue = 1113.76", fillcolor="#f3c3a0"] ;
57 -> 59 ;
60 [label="Unemployment <= 5.2\nmse = 532.69\nsamples = 2\nvalue = 1030.22", fillcolor="#f4c7a8"] ;
56 -> 60 ;
61 [label="mse = 0.0\nsamples = 1\nvalue = 1007.14", fillcolor="#f4c9aa"] ;
60 -> 61 ;
62 [label="mse = -0.0\nsamples = 1\nvalue = 1053.3", fillcolor="#f3c6a6"] ;
60 -> 62 ;
63 [label="USD <= 67.99\nmse = 6225.69\nsamples = 5\nvalue = 904.12", fillcolor="#f5cfb3"] ;
55 -> 63 ;
64 [label="TIME <= 242.0\nmse = 1855.46\nsamples = 4\nvalue = 931.91", fillcolor="#f5cdb1"] ;
63 -> 64 ;
65 [label="mse = 0.0\nsamples = 1\nvalue = 847.1", fillcolor="#f6d2b8"] ;
64 -> 65 ;
66 [label="mse = 500.16\nsamples = 3\nvalue = 948.88", fillcolor="#f4ccaf"] ;
64 -> 66 ;
67 [label="mse = 0.0\nsamples = 1\nvalue = 737.35", fillcolor="#f7d8c2"] ;
63 -> 67 ;
68 [label="USA6mBond <= 1.46\nmse = 117091.36\nsamples = 47\nvalue = 1505.76", fillcolor="#eeac7d"] ;
46 -> 68 ;
69 [label="TIME <= 219.0\nmse = 68192.77\nsamples = 32\nvalue = 1359.78", fillcolor="#f0b58a"] ;
68 -> 69 ;
70 [label="Brent <= 73.58\nmse = 41060.26\nsamples = 25\nvalue = 1463.88", fillcolor="#eeaf81"] ;
69 -> 70 ;
71 [label="key_rate <= 11.75\nmse = 2528.58\nsamples = 2\nvalue = 1037.3", fillcolor="#f3c7a7"] ;
70 -> 71 ;
72 [label="mse = 0.0\nsamples = 1\nvalue = 987.02", fillcolor="#f4caac"] ;
71 -> 72 ;
73 [label="mse = 0.0\nsamples = 1\nvalue = 1087.59", fillcolor="#f3c4a3"] ;
71 -> 73 ;
74 [label="Unemployment <= 6.45\nmse = 28950.41\nsamples = 23\nvalue = 1496.69", fillcolor="#eead7e"] ;
70 -> 74 ;
75 [label="mse = 7446.83\nsamples = 14\nvalue = 1419.08", fillcolor="#efb185"] ;
74 -> 75 ;
76 [label="mse = 36705.3\nsamples = 9\nvalue = 1643.27", fillcolor="#eca471"] ;
74 -> 76 ;
77 [label="Unemployment <= 5.15\nmse = 14018.76\nsamples = 7\nvalue = 1035.94", fillcolor="#f3c7a7"] ;
69 -> 77 ;
78 [label="InterbankRate <= 9.88\nmse = 6654.41\nsamples = 4\nvalue = 1082.22", fillcolor="#f3c4a3"] ;
77 -> 78 ;
79 [label="mse = 1241.44\nsamples = 3\nvalue = 1136.2", fillcolor="#f2c19e"] ;
78 -> 79 ;
80 [label="mse = 0.0\nsamples = 1\nvalue = 974.27", fillcolor="#f4cbad"] ;
78 -> 80 ;
81 [label="key_rate <= 9.12\nmse = 15893.67\nsamples = 3\nvalue = 943.37", fillcolor="#f5ccaf"] ;
77 -> 81 ;
82 [label="mse = 5566.65\nsamples = 2\nvalue = 865.32", fillcolor="#f5d1b6"] ;
81 -> 82 ;
83 [label="mse = 0.0\nsamples = 1\nvalue = 1099.46", fillcolor="#f3c3a1"] ;
81 -> 83 ;
84 [label="DAX-SP500 <= -450.9\nmse = 99554.6\nsamples = 15\nvalue = 1762.95", fillcolor="#eb9e66"] ;
68 -> 84 ;
85 [label="TIME <= 120.5\nmse = 38445.06\nsamples = 7\nvalue = 1463.84", fillcolor="#eeaf81"] ;
84 -> 85 ;
86 [label="mse = 0.0\nsamples = 1\nvalue = 1125.6", fillcolor="#f2c29f"] ;
85 -> 86 ;
87 [label="TIME <= 126.0\nmse = 7402.01\nsamples = 6\nvalue = 1560.48", fillcolor="#eda978"] ;
85 -> 87 ;
88 [label="mse = 595.69\nsamples = 3\nvalue = 1463.61", fillcolor="#eeaf81"] ;
87 -> 88 ;
89 [label="mse = 190.65\nsamples = 3\nvalue = 1633.14", fillcolor="#eca572"] ;
87 -> 89 ;
90 [label="TIME <= 140.0\nmse = 27964.08\nsamples = 8\nvalue = 1987.28", fillcolor="#e89152"] ;
84 -> 90 ;
91 [label="DAX-SP500 <= 1501.23\nmse = 3740.56\nsamples = 4\nvalue = 1860.29", fillcolor="#ea985d"] ;
90 -> 91 ;
92 [label="mse = 1656.5\nsamples = 3\nvalue = 1892.27", fillcolor="#e9965a"] ;
91 -> 92 ;
93 [label="mse = 0.0\nsamples = 1\nvalue = 1780.33", fillcolor="#eb9d64"] ;
91 -> 93 ;
94 [label="USA6mBond <= 1.9\nmse = 7691.59\nsamples = 4\nvalue = 2165.07", fillcolor="#e68742"] ;
90 -> 94 ;
95 [label="mse = 1044.85\nsamples = 2\nvalue = 2099.64", fillcolor="#e78a48"] ;
94 -> 95 ;
96 [label="mse = 1611.22\nsamples = 2\nvalue = 2263.2", fillcolor="#e58139"] ;
94 -> 96 ;
}